digraph Tree {
node [shape=box, fontname="helvetica"] ;
edge [fontname="helvetica"] ;
0 [label="x[0] <= 0.5\nentropy = 0.993\nsamples = 220\nvalue = [121.0, 99.0]"] ;
1 [label="entropy = 0.0\nsamples = 121\nvalue = [121, 0]"] ;
0 -> 1 [labeldistance=2.5, labelangle=45, headlabel="True"] ;
2 [label="entropy = 0.0\nsamples = 99\nvalue = [0, 99]"] ;
0 -> 2 [labeldistance=2.5, labelangle=-45, headlabel="False"] ;
}
